Language model created by QuickLM on Tue Feb 27 14:42:02 EST 2018
Copyright (c) 1996-2010 Carnegie Mellon University and Alexander I. Rudnicky

The model is in standard ARPA format, designed by Doug Paul while he was at MITRE.

The code that was used to produce this language model is available in Open Source.
Please visit http://www.speech.cs.cmu.edu/tools/ for more information

The (fixed) discount mass is 0.5. The backoffs are computed using the ratio method.
This model based on a corpus of 100 sentences and 155 words

\data\
ngram 1=155
ngram 2=262
ngram 3=199

\1-grams:
-2.2999 & -0.2894
-2.9020 3I -0.2429
-0.9020 </s> -0.3010
-0.9020 <s> -0.2398
-2.9020 ABERDEEN -0.2429
-2.9020 ADMIRAL -0.2911
-2.9020 AG -0.2429
-2.9020 AIRLINES -0.2911
-2.6010 AMERICAN -0.2906
-2.9020 ANGLO -0.2999
-2.9020 ANTOFAGASTA -0.2429
-2.9020 ASHTEAD -0.2911
-2.9020 ASSOCIATED -0.2994
-2.9020 ASTRAZENECA -0.2429
-2.9020 AVIVA -0.2429
-2.9020 BAE -0.3005
-2.9020 BANK -0.3005
-2.9020 BANKING -0.2911
-2.9020 BARCLAYS -0.2429
-2.9020 BARRATT -0.3005
-2.9020 BENCKISER -0.2429
-2.9020 BERKELEY -0.2911
-2.9020 BETFAIR -0.2429
-2.9020 BHP -0.2429
-2.9020 BP -0.2429
-2.9020 BRANDS -0.2429
-2.4249 BRITISH -0.2983
-2.9020 BT -0.2911
-2.9020 BUNZL -0.2429
-2.9020 BURBERRY -0.2429
-2.9020 CARNIVAL -0.3005
-2.9020 CENTRICA -0.2429
-2.9020 CHARTERED -0.2429
-2.9020 COCA-COLA -0.3005
-2.9020 COMPASS -0.2911
-2.9020 CORPORATION -0.2988
-2.9020 CRH -0.2911
-2.9020 CRODA -0.2994
-2.9020 D.S. -0.2429
-2.9020 DCC -0.2911
-2.9020 DEVELOPMENTS -0.2429
-2.9020 DIAGEO -0.2429
-2.9020 DIRECT -0.3005
-2.9020 DUTCH -0.3005
-2.9020 EASYJET -0.2429
-2.9020 EAT -0.2429
-2.9020 EVRAZ -0.2429
-2.9020 EXCHANGE -0.2911
-2.9020 EXPERIAN -0.2429
-2.9020 FERGUSON -0.2911
-2.9020 FOCUS -0.2429
-2.9020 FOODS -0.2429
-2.9020 FRESNILLO -0.2911
-2.9020 G4S -0.2429
-2.9020 GENERAL -0.2429
-2.9020 GKN -0.2429
-2.9020 GLAXOSMITHKLINE -0.2429
-2.9020 GLENCORE -0.2429
-2.9020 GRID -0.2911
-1.6467 GROUP -0.2416
-2.9020 HALMA -0.2429
-2.9020 HAMMERSON -0.2429
-2.9020 HARGREAVES -0.3005
-2.9020 HBC -0.3005
-2.9020 HEALTH -0.2429
-2.6010 HOLDINGS -0.2429
-2.9020 HOTELS -0.2911
-2.9020 HSBC -0.2429
-2.9020 IMPERIAL -0.3005
-2.9020 INFORMA -0.2429
-2.9020 INITIAL -0.2429
-2.9020 INSURANCE -0.2911
-2.9020 INTERCONTINENTAL -0.3005
-2.4249 INTERNATIONAL -0.2423
-2.9020 INTERTEK -0.2429
-2.9020 INVESTMENT -0.3005
-2.9020 ITV -0.2911
-2.9020 JAMES'S -0.3005
-2.9020 JOHNSON -0.3005
-2.9020 JUST -0.3005
-2.9020 KAPPA -0.2429
-2.9020 KINGFISHER -0.2911
-2.6010 LAND -0.2423
-2.9020 LANSDOWN -0.2429
-2.9020 LEGAL -0.2988
-2.9020 LIFE -0.3005
-2.9020 LINE -0.2911
-2.9020 LLOYDS -0.3005
-2.9020 LONDON -0.3005
-2.9020 MARKS -0.2988
-2.9020 MATTHEY -0.2429
-2.9020 MEDICLINIC -0.2994
-2.9020 MICRO -0.3005
-2.9020 MONDI -0.2429
-2.9020 MORRISONS -0.2429
-2.9020 MORTGAGE -0.3005
-2.9020 MUTUAL -0.2429
-2.9020 NATIONAL -0.3005
-2.9020 NEPHEW -0.2429
-2.9020 NEXT -0.2911
-2.9020 NMC -0.3005
-2.9020 OF -0.3005
-2.9020 OLD -0.3005
-2.9020 PADDY -0.3005
-2.9020 PEARSON -0.2911
-2.9020 PERSIMMON -0.2911
-2.9020 PLACE -0.2911
-1.6467 PLC -0.2429
-2.9020 POWER -0.3005
-2.9020 PRUDENTIAL -0.2911
-2.9020 RANDGOLD -0.3005
-2.9020 RECKITT -0.3005
-2.9020 RELX -0.2911
-2.9020 RENTOKIL -0.3005
-2.9020 RESOURCES -0.2429
-2.9020 RIO -0.3005
-2.9020 ROLLS-ROYCE -0.2999
-2.6010 ROYAL -0.2999
-2.9020 RSA -0.3005
-2.9020 SAGE -0.2911
-2.9020 SAINSBURY'S -0.2429
-2.9020 SCHRODERS -0.2429
-2.9020 SCOTLAND -0.2911
-2.9020 SCOTTISH -0.3005
-2.9020 SECURITIES -0.2429
-2.9020 SEGRO -0.2429
-2.9020 SEVERN -0.3005
-2.9020 SHELL -0.2429
-2.9020 SHIRE -0.2911
-2.9020 SKY -0.2911
-2.9020 SMITH -0.2988
-2.9020 SMITH, -0.3005
-2.9020 SMITHS -0.2911
-2.9020 SMURFIT -0.3005
-2.9020 SPENCER -0.2429
-2.9020 SSE -0.2911
-2.9020 ST. -0.3005
-2.6010 STANDARD -0.2999
-2.9020 STOCK -0.3005
-2.9020 SYSTEMS -0.2429
-2.9020 TAYLOR -0.3005
-2.9020 TESCO -0.2429
-2.9020 THE -0.2999
-2.9020 TINTO -0.2911
-2.9020 TOBACCO -0.2429
-2.9020 TRENT -0.2429
-2.9020 TRUST -0.2429
-2.9020 TUI -0.2911
-2.9020 UNILEVER -0.2429
-2.9020 UNITED -0.3005
-2.9020 UTILITIES -0.2429
-2.9020 VODAFONE -0.2911
-2.9020 WHITBREAD -0.2429
-2.9020 WIMPEY -0.2429
-2.9020 WPP -0.2911

\2-grams:
-0.9031 & GENERAL 0.0000
-0.9031 & NEPHEW 0.0000
-0.9031 & PLC 0.0000
-0.9031 & SPENCER 0.0000
-0.3010 3I </s> -0.3010
-2.3010 <s> 3I 0.0000
-2.3010 <s> ADMIRAL 0.0000
-2.3010 <s> ANGLO 0.0000
-2.3010 <s> ANTOFAGASTA 0.0000
-2.3010 <s> ASHTEAD 0.0000
-2.3010 <s> ASSOCIATED 0.0000
-2.3010 <s> ASTRAZENECA 0.0000
-2.3010 <s> AVIVA 0.0000
-2.3010 <s> BAE 0.0000
-2.3010 <s> BARCLAYS 0.0000
-2.3010 <s> BARRATT 0.0000
-2.3010 <s> BERKELEY 0.0000
-2.3010 <s> BHP 0.0000
-2.3010 <s> BP 0.0000
-2.0000 <s> BRITISH -0.1249
-2.3010 <s> BT 0.0000
-2.3010 <s> BUNZL 0.0000
-2.3010 <s> BURBERRY 0.0000
-2.3010 <s> CARNIVAL 0.0000
-2.3010 <s> CENTRICA 0.0000
-2.3010 <s> COCA-COLA 0.0000
-2.3010 <s> COMPASS 0.0000
-2.3010 <s> CRH 0.0000
-2.3010 <s> CRODA 0.0000
-2.3010 <s> DCC 0.0000
-2.3010 <s> DIAGEO 0.0000
-2.3010 <s> DIRECT 0.0000
-2.3010 <s> EASYJET 0.0000
-2.3010 <s> EVRAZ 0.0000
-2.3010 <s> EXPERIAN 0.0000
-2.3010 <s> FERGUSON 0.0000
-2.3010 <s> FRESNILLO 0.0000
-2.3010 <s> G4S 0.0000
-2.3010 <s> GKN 0.0000
-2.3010 <s> GLAXOSMITHKLINE 0.0000
-2.3010 <s> GLENCORE 0.0000
-2.3010 <s> HALMA 0.0000
-2.3010 <s> HAMMERSON 0.0000
-2.3010 <s> HARGREAVES 0.0000
-2.3010 <s> HSBC 0.0000
-2.3010 <s> IMPERIAL 0.0000
-2.3010 <s> INFORMA 0.0000
-2.3010 <s> INTERCONTINENTAL 0.0000
-2.3010 <s> INTERNATIONAL -0.2218
-2.3010 <s> INTERTEK 0.0000
-2.3010 <s> ITV 0.0000
-2.3010 <s> JOHNSON 0.0000
-2.3010 <s> JUST 0.0000
-2.3010 <s> KINGFISHER 0.0000
-2.3010 <s> LAND -0.1761
-2.3010 <s> LEGAL 0.0000
-2.3010 <s> LLOYDS 0.0000
-2.3010 <s> LONDON 0.0000
-2.3010 <s> MARKS 0.0000
-2.3010 <s> MEDICLINIC 0.0000
-2.3010 <s> MICRO 0.0000
-2.3010 <s> MONDI 0.0000
-2.3010 <s> MORRISONS 0.0000
-2.3010 <s> NATIONAL 0.0000
-2.3010 <s> NEXT 0.0000
-2.3010 <s> NMC 0.0000
-2.3010 <s> OLD 0.0000
-2.3010 <s> PADDY 0.0000
-2.3010 <s> PEARSON 0.0000
-2.3010 <s> PERSIMMON 0.0000
-2.3010 <s> PRUDENTIAL 0.0000
-2.3010 <s> RANDGOLD 0.0000
-2.3010 <s> RECKITT 0.0000
-2.3010 <s> RELX 0.0000
-2.3010 <s> RENTOKIL 0.0000
-2.3010 <s> RIO 0.0000
-2.3010 <s> ROLLS-ROYCE 0.0000
-2.3010 <s> ROYAL -0.1761
-2.3010 <s> RSA 0.0000
-2.3010 <s> SAGE 0.0000
-2.3010 <s> SAINSBURY'S 0.0000
-2.3010 <s> SCHRODERS 0.0000
-2.3010 <s> SCOTTISH 0.0000
-2.3010 <s> SEGRO 0.0000
-2.3010 <s> SEVERN 0.0000
-2.3010 <s> SHIRE 0.0000
-2.3010 <s> SKY 0.0000
-2.3010 <s> SMITH 0.0000
-2.3010 <s> SMITH, 0.0000
-2.3010 <s> SMITHS 0.0000
-2.3010 <s> SMURFIT 0.0000
-2.3010 <s> SSE 0.0000
-2.3010 <s> ST. 0.0000
-2.0000 <s> STANDARD 0.0000
-2.3010 <s> TAYLOR 0.0000
-2.3010 <s> TESCO 0.0000
-2.3010 <s> THE 0.0000
-2.3010 <s> TUI 0.0000
-2.3010 <s> UNILEVER 0.0000
-2.3010 <s> UNITED 0.0000
-2.3010 <s> VODAFONE 0.0000
-2.3010 <s> WHITBREAD 0.0000
-2.3010 <s> WPP 0.0000
-0.3010 ABERDEEN </s> -0.3010
-0.3010 ADMIRAL GROUP -0.0235
-0.3010 AG </s> -0.3010
-0.3010 AIRLINES GROUP -0.0235
-0.6021 AMERICAN PLC 0.0000
-0.6021 AMERICAN TOBACCO 0.0000
-0.3010 ANGLO AMERICAN -0.1761
-0.3010 ANTOFAGASTA </s> -0.3010
-0.3010 ASHTEAD GROUP -0.0235
-0.3010 ASSOCIATED BRITISH -0.2218
-0.3010 ASTRAZENECA </s> -0.3010
-0.3010 AVIVA </s> -0.3010
-0.3010 BAE SYSTEMS 0.0000
-0.3010 BANK OF 0.0000
-0.3010 BANKING GROUP -0.0235
-0.3010 BARCLAYS </s> -0.3010
-0.3010 BARRATT DEVELOPMENTS 0.0000
-0.3010 BENCKISER </s> -0.3010
-0.3010 BERKELEY GROUP -0.2888
-0.3010 BETFAIR </s> -0.3010
-0.3010 BHP </s> -0.3010
-0.3010 BP </s> -0.3010
-0.3010 BRANDS </s> -0.3010
-0.7782 BRITISH AMERICAN -0.1761
-0.7782 BRITISH FOODS 0.0000
-0.7782 BRITISH LAND -0.1761
-0.3010 BT GROUP -0.0235
-0.3010 BUNZL </s> -0.3010
-0.3010 BURBERRY </s> -0.3010
-0.3010 CARNIVAL CORPORATION 0.0000
-0.3010 CENTRICA </s> -0.3010
-0.3010 CHARTERED </s> -0.3010
-0.3010 COCA-COLA HBC 0.0000
-0.3010 COMPASS GROUP -0.0235
-0.3010 CORPORATION & -0.2430
-0.3010 CRH PLC 0.0000
-0.3010 CRODA INTERNATIONAL -0.1249
-0.3010 D.S. </s> -0.3010
-0.3010 DCC PLC 0.0000
-0.3010 DEVELOPMENTS </s> -0.3010
-0.3010 DIAGEO </s> -0.3010
-0.3010 DIRECT LINE 0.0000
-0.3010 DUTCH SHELL 0.0000
-0.3010 EASYJET </s> -0.3010
-0.3010 EAT </s> -0.3010
-0.3010 EVRAZ </s> -0.3010
-0.3010 EXCHANGE GROUP -0.0235
-0.3010 EXPERIAN </s> -0.3010
-0.3010 FERGUSON PLC 0.0000
-0.3010 FOCUS </s> -0.3010
-0.3010 FOODS </s> -0.3010
-0.3010 FRESNILLO PLC 0.0000
-0.3010 G4S </s> -0.3010
-0.3010 GENERAL </s> -0.3010
-0.3010 GKN </s> -0.3010
-0.3010 GLAXOSMITHKLINE </s> -0.3010
-0.3010 GLENCORE </s> -0.3010
-0.3010 GRID PLC 0.0000
-0.3259 GROUP </s> -0.3010
-1.5563 GROUP HOLDINGS 0.0000
-0.3010 HALMA </s> -0.3010
-0.3010 HAMMERSON </s> -0.3010
-0.3010 HARGREAVES LANSDOWN 0.0000
-0.3010 HBC AG 0.0000
-0.3010 HEALTH </s> -0.3010
-0.3010 HOLDINGS </s> -0.3010
-0.3010 HOTELS GROUP -0.0235
-0.3010 HSBC </s> -0.3010
-0.3010 IMPERIAL BRANDS 0.0000
-0.3010 INFORMA </s> -0.3010
-0.3010 INITIAL </s> -0.3010
-0.3010 INSURANCE GROUP -0.0235
-0.3010 INTERCONTINENTAL HOTELS 0.0000
-0.4771 INTERNATIONAL </s> -0.3010
-0.7782 INTERNATIONAL AIRLINES 0.0000
-0.3010 INTERTEK </s> -0.3010
-0.3010 INVESTMENT TRUST 0.0000
-0.3010 ITV PLC 0.0000
-0.3010 JAMES'S PLACE 0.0000
-0.3010 JOHNSON MATTHEY 0.0000
-0.3010 JUST EAT 0.0000
-0.3010 KAPPA </s> -0.3010
-0.3010 KINGFISHER PLC 0.0000
-0.6021 LAND </s> -0.3010
-0.6021 LAND SECURITIES 0.0000
-0.3010 LANSDOWN </s> -0.3010
-0.3010 LEGAL & -0.2430
-0.3010 LIFE ABERDEEN 0.0000
-0.3010 LINE GROUP -0.0235
-0.3010 LLOYDS BANKING 0.0000
-0.3010 LONDON STOCK 0.0000
-0.3010 MARKS & -0.2430
-0.3010 MATTHEY </s> -0.3010
-0.3010 MEDICLINIC INTERNATIONAL -0.1249
-0.3010 MICRO FOCUS 0.0000
-0.3010 MONDI </s> -0.3010
-0.3010 MORRISONS </s> -0.3010
-0.3010 MORTGAGE INVESTMENT 0.0000
-0.3010 MUTUAL </s> -0.3010
-0.3010 NATIONAL GRID 0.0000
-0.3010 NEPHEW </s> -0.3010
-0.3010 NEXT PLC 0.0000
-0.3010 NMC HEALTH 0.0000
-0.3010 OF SCOTLAND 0.0000
-0.3010 OLD MUTUAL 0.0000
-0.3010 PADDY POWER 0.0000
-0.3010 PEARSON PLC 0.0000
-0.3010 PERSIMMON PLC 0.0000
-0.3010 PLACE PLC 0.0000
-0.3010 PLC </s> -0.3010
-0.3010 POWER BETFAIR 0.0000
-0.3010 PRUDENTIAL PLC 0.0000
-0.3010 RANDGOLD RESOURCES 0.0000
-0.3010 RECKITT BENCKISER 0.0000
-0.3010 RELX GROUP -0.0235
-0.3010 RENTOKIL INITIAL 0.0000
-0.3010 RESOURCES </s> -0.3010
-0.3010 RIO TINTO 0.0000
-0.3010 ROLLS-ROYCE HOLDINGS 0.0000
-0.6021 ROYAL BANK 0.0000
-0.6021 ROYAL DUTCH 0.0000
-0.3010 RSA INSURANCE 0.0000
-0.3010 SAGE GROUP -0.0235
-0.3010 SAINSBURY'S </s> -0.3010
-0.3010 SCHRODERS </s> -0.3010
-0.3010 SCOTLAND GROUP -0.0235
-0.3010 SCOTTISH MORTGAGE 0.0000
-0.3010 SECURITIES </s> -0.3010
-0.3010 SEGRO </s> -0.3010
-0.3010 SEVERN TRENT 0.0000
-0.3010 SHELL </s> -0.3010
-0.3010 SHIRE PLC 0.0000
-0.3010 SKY PLC 0.0000
-0.3010 SMITH & -0.2430
-0.3010 SMITH, D.S. 0.0000
-0.3010 SMITHS GROUP -0.0235
-0.3010 SMURFIT KAPPA 0.0000
-0.3010 SPENCER </s> -0.3010
-0.3010 SSE PLC 0.0000
-0.3010 ST. JAMES'S 0.0000
-0.6021 STANDARD CHARTERED 0.0000
-0.6021 STANDARD LIFE 0.0000
-0.3010 STOCK EXCHANGE 0.0000
-0.3010 SYSTEMS </s> -0.3010
-0.3010 TAYLOR WIMPEY 0.0000
-0.3010 TESCO </s> -0.3010
-0.3010 THE ROYAL -0.1761
-0.3010 TINTO GROUP -0.0235
-0.3010 TOBACCO </s> -0.3010
-0.3010 TRENT </s> -0.3010
-0.3010 TRUST </s> -0.3010
-0.3010 TUI GROUP -0.0235
-0.3010 UNILEVER </s> -0.3010
-0.3010 UNITED UTILITIES 0.0000
-0.3010 UTILITIES </s> -0.3010
-0.3010 VODAFONE GROUP -0.0235
-0.3010 WHITBREAD </s> -0.3010
-0.3010 WIMPEY </s> -0.3010
-0.3010 WPP PLC 0.0000

\3-grams:
-0.3010 & GENERAL </s>
-0.3010 & NEPHEW </s>
-0.3010 & PLC </s>
-0.3010 & SPENCER </s>
-0.3010 <s> 3I </s>
-0.3010 <s> ADMIRAL GROUP
-0.3010 <s> ANGLO AMERICAN
-0.3010 <s> ANTOFAGASTA </s>
-0.3010 <s> ASHTEAD GROUP
-0.3010 <s> ASSOCIATED BRITISH
-0.3010 <s> ASTRAZENECA </s>
-0.3010 <s> AVIVA </s>
-0.3010 <s> BAE SYSTEMS
-0.3010 <s> BARCLAYS </s>
-0.3010 <s> BARRATT DEVELOPMENTS
-0.3010 <s> BERKELEY GROUP
-0.3010 <s> BHP </s>
-0.3010 <s> BP </s>
-0.6021 <s> BRITISH AMERICAN
-0.6021 <s> BRITISH LAND
-0.3010 <s> BT GROUP
-0.3010 <s> BUNZL </s>
-0.3010 <s> BURBERRY </s>
-0.3010 <s> CARNIVAL CORPORATION
-0.3010 <s> CENTRICA </s>
-0.3010 <s> COCA-COLA HBC
-0.3010 <s> COMPASS GROUP
-0.3010 <s> CRH PLC
-0.3010 <s> CRODA INTERNATIONAL
-0.3010 <s> DCC PLC
-0.3010 <s> DIAGEO </s>
-0.3010 <s> DIRECT LINE
-0.3010 <s> EASYJET </s>
-0.3010 <s> EVRAZ </s>
-0.3010 <s> EXPERIAN </s>
-0.3010 <s> FERGUSON PLC
-0.3010 <s> FRESNILLO PLC
-0.3010 <s> G4S </s>
-0.3010 <s> GKN </s>
-0.3010 <s> GLAXOSMITHKLINE </s>
-0.3010 <s> GLENCORE </s>
-0.3010 <s> HALMA </s>
-0.3010 <s> HAMMERSON </s>
-0.3010 <s> HARGREAVES LANSDOWN
-0.3010 <s> HSBC </s>
-0.3010 <s> IMPERIAL BRANDS
-0.3010 <s> INFORMA </s>
-0.3010 <s> INTERCONTINENTAL HOTELS
-0.3010 <s> INTERNATIONAL AIRLINES
-0.3010 <s> INTERTEK </s>
-0.3010 <s> ITV PLC
-0.3010 <s> JOHNSON MATTHEY
-0.3010 <s> JUST EAT
-0.3010 <s> KINGFISHER PLC
-0.3010 <s> LAND SECURITIES
-0.3010 <s> LEGAL &
-0.3010 <s> LLOYDS BANKING
-0.3010 <s> LONDON STOCK
-0.3010 <s> MARKS &
-0.3010 <s> MEDICLINIC INTERNATIONAL
-0.3010 <s> MICRO FOCUS
-0.3010 <s> MONDI </s>
-0.3010 <s> MORRISONS </s>
-0.3010 <s> NATIONAL GRID
-0.3010 <s> NEXT PLC
-0.3010 <s> NMC HEALTH
-0.3010 <s> OLD MUTUAL
-0.3010 <s> PADDY POWER
-0.3010 <s> PEARSON PLC
-0.3010 <s> PERSIMMON PLC
-0.3010 <s> PRUDENTIAL PLC
-0.3010 <s> RANDGOLD RESOURCES
-0.3010 <s> RECKITT BENCKISER
-0.3010 <s> RELX GROUP
-0.3010 <s> RENTOKIL INITIAL
-0.3010 <s> RIO TINTO
-0.3010 <s> ROLLS-ROYCE HOLDINGS
-0.3010 <s> ROYAL DUTCH
-0.3010 <s> RSA INSURANCE
-0.3010 <s> SAGE GROUP
-0.3010 <s> SAINSBURY'S </s>
-0.3010 <s> SCHRODERS </s>
-0.3010 <s> SCOTTISH MORTGAGE
-0.3010 <s> SEGRO </s>
-0.3010 <s> SEVERN TRENT
-0.3010 <s> SHIRE PLC
-0.3010 <s> SKY PLC
-0.3010 <s> SMITH &
-0.3010 <s> SMITH, D.S.
-0.3010 <s> SMITHS GROUP
-0.3010 <s> SMURFIT KAPPA
-0.3010 <s> SSE PLC
-0.3010 <s> ST. JAMES'S
-0.6021 <s> STANDARD CHARTERED
-0.6021 <s> STANDARD LIFE
-0.3010 <s> TAYLOR WIMPEY
-0.3010 <s> TESCO </s>
-0.3010 <s> THE ROYAL
-0.3010 <s> TUI GROUP
-0.3010 <s> UNILEVER </s>
-0.3010 <s> UNITED UTILITIES
-0.3010 <s> VODAFONE GROUP
-0.3010 <s> WHITBREAD </s>
-0.3010 <s> WPP PLC
-0.3010 ADMIRAL GROUP </s>
-0.3010 AIRLINES GROUP </s>
-0.3010 AMERICAN PLC </s>
-0.3010 AMERICAN TOBACCO </s>
-0.3010 ANGLO AMERICAN PLC
-0.3010 ASHTEAD GROUP </s>
-0.3010 ASSOCIATED BRITISH FOODS
-0.3010 BAE SYSTEMS </s>
-0.3010 BANK OF SCOTLAND
-0.3010 BANKING GROUP </s>
-0.3010 BARRATT DEVELOPMENTS </s>
-0.3010 BERKELEY GROUP HOLDINGS
-0.3010 BRITISH AMERICAN TOBACCO
-0.3010 BRITISH FOODS </s>
-0.3010 BRITISH LAND </s>
-0.3010 BT GROUP </s>
-0.3010 CARNIVAL CORPORATION &
-0.3010 COCA-COLA HBC AG
-0.3010 COMPASS GROUP </s>
-0.3010 CORPORATION & PLC
-0.3010 CRH PLC </s>
-0.3010 CRODA INTERNATIONAL </s>
-0.3010 DCC PLC </s>
-0.3010 DIRECT LINE GROUP
-0.3010 DUTCH SHELL </s>
-0.3010 EXCHANGE GROUP </s>
-0.3010 FERGUSON PLC </s>
-0.3010 FRESNILLO PLC </s>
-0.3010 GRID PLC </s>
-0.3010 GROUP HOLDINGS </s>
-0.3010 HARGREAVES LANSDOWN </s>
-0.3010 HBC AG </s>
-0.3010 HOTELS GROUP </s>
-0.3010 IMPERIAL BRANDS </s>
-0.3010 INSURANCE GROUP </s>
-0.3010 INTERCONTINENTAL HOTELS GROUP
-0.3010 INTERNATIONAL AIRLINES GROUP
-0.3010 INVESTMENT TRUST </s>
-0.3010 ITV PLC </s>
-0.3010 JAMES'S PLACE PLC
-0.3010 JOHNSON MATTHEY </s>
-0.3010 JUST EAT </s>
-0.3010 KINGFISHER PLC </s>
-0.3010 LAND SECURITIES </s>
-0.3010 LEGAL & GENERAL
-0.3010 LIFE ABERDEEN </s>
-0.3010 LINE GROUP </s>
-0.3010 LLOYDS BANKING GROUP
-0.3010 LONDON STOCK EXCHANGE
-0.3010 MARKS & SPENCER
-0.3010 MEDICLINIC INTERNATIONAL </s>
-0.3010 MICRO FOCUS </s>
-0.3010 MORTGAGE INVESTMENT TRUST
-0.3010 NATIONAL GRID PLC
-0.3010 NEXT PLC </s>
-0.3010 NMC HEALTH </s>
-0.3010 OF SCOTLAND GROUP
-0.3010 OLD MUTUAL </s>
-0.3010 PADDY POWER BETFAIR
-0.3010 PEARSON PLC </s>
-0.3010 PERSIMMON PLC </s>
-0.3010 PLACE PLC </s>
-0.3010 POWER BETFAIR </s>
-0.3010 PRUDENTIAL PLC </s>
-0.3010 RANDGOLD RESOURCES </s>
-0.3010 RECKITT BENCKISER </s>
-0.3010 RELX GROUP </s>
-0.3010 RENTOKIL INITIAL </s>
-0.3010 RIO TINTO GROUP
-0.3010 ROLLS-ROYCE HOLDINGS </s>
-0.3010 ROYAL BANK OF
-0.3010 ROYAL DUTCH SHELL
-0.3010 RSA INSURANCE GROUP
-0.3010 SAGE GROUP </s>
-0.3010 SCOTLAND GROUP </s>
-0.3010 SCOTTISH MORTGAGE INVESTMENT
-0.3010 SEVERN TRENT </s>
-0.3010 SHIRE PLC </s>
-0.3010 SKY PLC </s>
-0.3010 SMITH & NEPHEW
-0.3010 SMITH, D.S. </s>
-0.3010 SMITHS GROUP </s>
-0.3010 SMURFIT KAPPA </s>
-0.3010 SSE PLC </s>
-0.3010 ST. JAMES'S PLACE
-0.3010 STANDARD CHARTERED </s>
-0.3010 STANDARD LIFE ABERDEEN
-0.3010 STOCK EXCHANGE GROUP
-0.3010 TAYLOR WIMPEY </s>
-0.3010 THE ROYAL BANK
-0.3010 TINTO GROUP </s>
-0.3010 TUI GROUP </s>
-0.3010 UNITED UTILITIES </s>
-0.3010 VODAFONE GROUP </s>
-0.3010 WPP PLC </s>

\end\
